{"W1": [[-0.03921642048170924, -0.046532045300564887, -0.030296340124340154, 0.19781826052482773, -0.034725132491721246, -0.4075279810832828, 0.0908882218377441, -0.0708830856914365, -0.057171714578220775, 0.021113126184284743, 0.05566468935064916, 0.27069552115543555, 0.14050391420291614, 0.026196498264641464, -0.2009456879798754, -0.2761561179499176, 0.0507813900236333, 0.28356864054523706, 0.0017304006908543334, -0.08504847685454733, 0.07487947704108386, -0.3956049220158861, -0.08499112058327209, 0.13345977709255785, 0.20872306797573908, -0.06549110166422532, 0.10249749899884782], [0.06755514423897593, 0.2111511181478265, -0.3029807105821418, 0.15108250408555346, -0.4122002405296323, -0.7130588264863134, -0.1666642407482931, -0.2668731184593394, 0.2207991391830438, 0.1830276286431183, -0.3317901193877624, 0.2247460264854395, -0.2727650597966631, -0.024471568598083353, -0.07888449654723517, 0.03493557013590455, 0.22115259725869094, 0.17225537105824984, 0.09064921794563417, 0.17822038241576935, 0.1335847931089752, -0.17064382954772767, -0.19524368178587284, -0.1279091629921865, 0.1319363789927105, -0.06807283618538337, 0.6357117788476222], [-0.22663640848870154, -0.304335102787728, 0.21180889168120484, 0.37675861801907246, 0.12136987203280653, 0.20861624387328362, 0.3681915191303995, -0.048983448536970176, -0.4106727788796245, -0.14332723082626583, 0.2731208727200466, -0.3929194941740372, 0.03337773713649297, 0.08447836042962997, -0.07434462330501579, 0.23488377190328655, 0.19086232618040683, 0.6501019751377916, 0.19549078867091502, -0.10841984242071416, -0.07972131222031698, -0.2253361215778965, 0.2591760352324973, -0.15427235719431912, -0.0023164789826164724, 0.20452929448230753, -0.19690168609820702], [-0.0811869090099693, -0.5011346467915927, -0.29461336379082526, -0.1545182798076065, 0.10840910086871987, 0.31916182049065295, -0.009575853353721, 0.043399416513130236, 0.017980541438505276, 0.2921592550201915, 0.23986906988934678, 0.06537722315426683, -0.2751441890904862, 0.23782781074414885, 0.09898396957353366, 0.329478805865031, -0.016602239123682676, 0.5229501689317472, -0.10282786477963773, 0.42217441662606225, 0.022442203834179896, -0.1405106269626325, -0.3071246099633855, -0.041105309649029594, 0.3739897936406417, 0.2221889950808397, 0.18749043994315706], [-0.6466306108829739, 0.18892678055873843, 0.15197607975787733, -0.15616450469378923, -0.18441166830305433, -0.013987065469812916, 0.4525134535999782, -0.3067864418327154, -0.1360581866837367, 0.38473491274878013, -0.11161475140258748, -0.09398570371547442, 0.039791955803885094, -0.3389073878727934, 0.07458636404307507, -0.3292162107196616, 0.24927531450845272, 0.0056658262436260045, 0.6167232745418076, 0.09655369980791148, 0.40200387678551897, -0.3544455409930871, -0.03324211879412005, 0.08794910721472302, 0.476278512804454, -0.4573325812788285, 0.2696125271878741], [0.16283817813229276, 0.425085328327067, 0.18967748053277841, 0.027568183602907366, -0.14197505200285687, -0.3381782100550398, 0.05966828420557997, 0.13683672941033687, 0.7388571062641865, -0.15202461823788999, 0.0697583749761255, -0.3983570035855091, -0.0982632044701117, 0.06681342019900345, 0.1915159640412899, 0.3494870131315225, -0.03810761062845306, -0.2942545795246279, 0.09932401630527823, 0.0610755035194107, 0.0445849904599229, -0.1921648503500572, 0.3084681618355081, 0.023922236910354833, 0.20176781703708774, 0.345816406994557, 0.16582292219863967], [0.07204235403820615, 0.5772612443115902, 0.07051613755022561, -0.09161830422245013, 0.003057915128576006, 0.37193536335923505, -0.0012476078147438485, -0.10816945071651324, 0.07591073365267695, -0.09240217486382551, -0.4824687901106316, 0.09235390120858465, 0.11719924802483697, -0.18003646234518839, 0.28326305800751483, 0.24104790815602237, -0.27132756378016104, 0.19760181668255883, -0.025163516401938125, -0.26523176512495766, 0.3029019467071169, -0.01074583907784466, -0.20284031300414332, 0.1423277612374793, 0.13312822346953254, -0.1562496978447598, 0.10896206491282988], [0.26768211181713725, -0.20627245923820778, 0.1099461530251125, -0.023211918390480164, 0.5783230560456734, -0.5513712087007341, 0.14206743215028245, -0.3036016232355999, -0.2475226047220637, 0.5997700467115773, 0.030037607680282147, 0.6079003278478051, -0.06044414951154974, 0.098803027175878, -0.07781154434836995, -0.11660719214627319, 0.07392541321168769, -0.03744052580580071, 0.08243510306722078, -0.40282339113967763, 0.764091718514866, -0.043106668357079075, 0.47435879557338756, -0.2741012025255975, 0.09820022733905881, 0.8627946148915319, -0.23671030144644978], [-0.40696905073496775, -0.14874105568225576, 0.12904433175772384, 0.1876216822279488, 0.3511933296375095, -0.06994991484805882, -0.43607742230694957, -0.16471862816289187, 0.2912273511204979, 0.13870087642188236, -0.5326112757811825, -0.011741593584400448, 0.38713700426341147, 0.5780919826786042, 0.15836166474161784, 0.09369695627382517, -0.3375412291858448, -0.22950164116204583, 0.016366098668687972, 0.15756996336220594, 0.18330205777241676, -0.12998412381253555, -0.3135189636446887, -0.21168540465525032, -0.31555675891326185, 0.17521445504806163, -0.6293232057433541], [-0.09070678946949821, 0.12244137333136898, 0.41495865109707814, 0.017292288297948523, 0.2720107548526621, -0.10908825742914643, -0.2030844055629238, -0.2255057235263489, 0.373728961119342, 0.28007775321736444, 0.13551132536885677, 0.9035292759941256, -0.012123456651622965, 0.16724291001290845, 0.08251296329221425, -0.06177941070301424, 0.6355192932228184, 0.41452649714351103, -0.38089011224855535, -0.09594134117895146, 0.1333185980094947, 0.21342422840088496, -0.3670008073548784, -0.6138861079584059, -0.5225253874952936, -0.019192835318123123, -0.02808834760892286], [0.09395681342250123, -0.20947894152151939, -0.3331952922067352, -0.5506031241920911, 0.0978632988200964, 0.1088035224198753, 0.2781854761415166, 0.23679604109345276, -0.030337490643910763, 0.3332374673186733, -0.04831854011906805, -0.1810136218991022, -0.14496868464861118, -0.15968055141162568, -0.589272671433785, 0.012455048579840098, 0.0362760013222423, -0.10545064637845117, -0.19519038531427807, 0.05596761792951796, 0.41993353726456867, 0.010411733741061992, -0.1381603682169112, -0.16097153952586382, -0.032327986509612584, -0.3442255881434802, -0.03409164121279532], [0.016651703214799272, 0.49485632208505853, 0.2609942360737101, 0.2664826206238872, -0.19404001539497995, 0.18232954984740607, -0.31615666085038957, -0.03601101500992514, -0.006950115274220386, -0.208590222601877, 0.5674569599812537, 0.15745814640724182, -0.5170274779521403, 0.15732871961145112, -0.11814209605931571, 0.010882802599980063, 0.16521457097105888, 0.14107003711151558, -0.5564943605163504, -0.2617198195175916, 0.2847818230646274, 0.3557151281554998, 0.5179726083142213, 0.49076023389924345, -0.5613107930258948, 0.21036981971964006, -0.5215481324252622], [0.4388874933584361, 0.06855911204202159, -0.31058680454822984, 0.5462467994822431, 0.1752666712698496, -0.5149316353496433, 0.07954069655471141, -0.2015612225824463, 0.027720648636556145, -0.1266099374168152, 0.3740688819665879, -0.38736948987762027, 0.08638674488474536, 0.4928451571463291, -0.22507008555739888, 0.05733130792616256, 0.05487959915627082, -0.18771315969257862, 0.17678672601987863, 0.02711080151794628, -0.25600031703460907, 0.47956004172983374, 0.21545031270889575, -0.04548074975339151, -0.17379244017711387, -0.21347646641413348, 0.3350196984731803], [-0.026294777394838976, 0.14455459946669663, -0.058507308336891384, 0.20450476572736692, 0.030697225881905713, 0.2797836560177551, 0.026224111335521726, 0.7121647042167305, 0.6693794157753197, -0.05831989512357502, -0.20255351888884873, -0.1885740250759292, -0.18462830883299122, -0.19966525662525855, 0.19061486206162623, -0.027321821890963896, 0.3162851238752538, 0.5446443301306796, 0.03209710642046609, -0.5420746136733049, -0.29079944621035386, -0.023603103945970847, -0.40510269524176945, -0.06817563482110746, 0.1568733343653538, -0.12689793927717943, -0.2091390462515265], [-0.20650743331294474, 0.4862737190125518, -0.04345015957385907, -0.22587836701602862, -0.10149008701200714, 0.25973945821631084, -0.18634848232094686, 0.19576190258121623, 0.262724866410115, 0.18498771609783998, 0.3696330985699674, -0.1426700991218044, 0.28705162586967364, -0.21418792476939852, -0.1012543807701842, 0.2979924170443846, 0.19696117241566835, 0.0062830271590264795, -0.3242617718078053, 0.11005866640303197, -0.21886474406266168, -0.25144960113479786, -0.176399800907697, 0.06708718026592489, -0.5823480386725535, 0.09818729370743151, 0.047332203294536475], [-0.1590879363505998, 0.2822158632576188, 0.16394097680653316, -0.16500964394766146, -0.18235542694690154, 0.1891962676471762, -0.41262295923271736, -0.09052835887803479, -0.17174911069646231, 0.019018242434596603, 0.0571324676365393, 0.01001240226259832, 0.27687361255754805, 0.06152211812097139, -0.08573003204586196, -0.32955296400677425, 0.1811820280075312, 0.13395471889814745, 0.3597705045579635, -0.22068695990234932, -0.02419903316516584, -0.016896429352219484, -0.02384465567647026, 0.002827857341234942, -0.4790754223700193, 0.22397924238643643, 0.17778012019482253], [0.3067391012514854, 0.6108917823969648, -0.08652294367152517, -0.011741368809021125, 0.001271913292312379, 0.526476568873802, -0.47365917863677526, 0.12437680462256821, -0.4081420851912464, -0.702614572342166, -0.550001021625511, -0.37606976712310947, 0.2965038145912419, -0.2366583374275343, -0.062298370628396896, -0.3166680635175549, 0.16909072118379695, -0.2999159390229397, 0.36161926145483886, -0.2663151275189419, -0.2015186666982048, 0.03351376943292057, 0.006725542438833474, 0.3877515287827831, 0.03226277204883977, -0.3286661227136727, -0.15250394515761392], [-0.1558920437900455, 0.20600484796745352, 0.09989252784531155, -0.016498764860513385, 0.2620376308946702, -0.11903689328970662, -0.005475871870707415, 0.25510225840303646, 0.6218237718396851, -0.05074920132350251, -0.08736492933640173, -0.2531281803260005, 0.15220958860701858, -0.13418214466580164, 0.06887829446000074, -0.500234405301473, 0.2419617572249972, -0.34309118668525046, -0.1890338713482542, 0.22643531631056948, -0.43135563608904415, -0.023327448515244136, 0.020209945438437342, -0.2717727413161174, 0.3989062626244717, 0.40689427030698394, -0.5366063168608456], [-0.3943652078744428, 0.21997294331040856, -0.3546382504645729, -0.10692862315334806, 0.037798989402321716, 0.19078115488015887, -0.05832761144144819, 0.026534395786600502, -0.21078137980068037, 0.2580926129047075, -0.13480735688214374, 0.07415725350280161, -0.13925024945587153, 0.018526764391590966, -0.052175375583648056, -0.05048898994722038, -0.27591620151294877, 0.17241740417143445, 0.3110395103696789, -0.008019202745861131, 0.11400639294127593, 0.22809318639735515, 0.2525657391094784, 0.08256325009535369, 0.021099197095183136, 0.2351529945005556, 0.01873378617065873], [-0.26396901089516933, 0.00802066820047554, -0.5139615701877492, 0.0014776693037072777, 0.11757834068794988, 0.34224202862794156, 0.04732128664575893, 0.2781329067220188, 0.025378950349654976, -0.27685532874999236, -0.38221986207362096, -0.25937162930518204, -0.3698505653478803, 0.17498415491001892, -0.05372882320595672, 0.15180412767332493, 0.01900927241634836, 0.28368881467607604, 0.2890041171032644, -0.1793662720055008, -0.08040833050951487, -0.14501757310734253, -0.4412652554864376, 0.18377083020119697, 0.3303837415194335, -0.0017495864987492438, -0.13422992003458997], [0.3006085550050032, -0.6382178971285342, 0.045725843964054685, 0.04456510314994132, -0.13799090887516652, 0.3987323136590087, 0.2808566670943143, 0.003426990591548375, 0.050909330715684986, -0.10560674651851445, -0.1393813848137522, -0.35604692248474906, 0.3405241383417356, 0.27650729242466626, 0.2091102669692234, -0.2978405122945217, 0.5223926764304045, 0.5062409590278968, 0.05795579566695997, -0.2950560780923403, -0.30115288152027186, 0.11295523371323705, -0.24849097462510167, -0.009311023342042566, 0.2945467067730217, -0.41068104327853544, 0.5458902074075119], [0.42322326417678113, -0.3366921221810189, -0.3847444278036516, -0.07713765813050068, -0.28064163249737395, -0.0743534067420738, -0.7025098384982025, -0.17717328309635516, 0.3757469139273414, -0.3096419849867338, -0.08535260474746861, -0.41022447976509874, 0.20578293171125686, -0.07669911541070974, 0.5548790829370258, 0.06091061485666289, -0.1070301722976649, 0.18226488108788033, -0.15159644492196214, -0.33243177263844603, 0.1303275465024449, -0.04759325861606128, 0.045265223319501134, 0.10218654277317904, -0.14858029126831063, 0.11473855558000055, 0.4729411035537529], [-0.3015048427913135, 0.47730569074557094, -0.06608267475705218, -0.20465643890300952, 0.6747532517921953, 0.056027239328941075, 0.39026946273104196, 0.22252096743187916, -0.45739997618992184, 0.032882929736280514, -0.14297392922162372, -0.36518968870943214, -0.48219875766362846, 0.028872318558183653, 0.14774175464115194, 0.100016429869088, -0.08323598987971642, -0.2122550064013779, -0.26643589546828095, -0.1510955757473151, -0.28800952523922346, -0.055324352591872815, -0.006229075269293345, -0.2438570910761504, -0.058825202877221185, -0.2069329039455388, -0.001217234532274239], [0.13801179325850463, 0.04847954816537139, 0.12693863927438884, -0.44962141808652956, -0.10276529267512971, 0.07561508356361317, 0.1747925969229124, -0.4349214273294355, 0.0433228333334825, 0.2845491893453951, -0.05059708287326156, -0.02872860944562831, 0.10212679704485601, 0.05600739009973796, 0.15971266068454845, 0.010731302387474925, 0.028300214016002655, -0.21319472574007367, -0.05069972820330571, 0.29238088721817024, -0.09835881604080254, -0.04646101865694863, -0.13377027422890964, 0.21424486052247305, -0.2535240321527484, 0.2474571301074984, -0.25501185761130535], [-0.2878915573497927, 0.0524473574322963, 0.03604194931403213, 0.07413023196200541, 0.27766856696561226, -0.12353076240035622, 0.1064986601433115, -0.3211526979904442, 0.26917060000483733, 0.20931602517973222, 0.16054920718319046, 0.04223232579947777, -0.21381308670608945, -0.09644237797439022, 0.15095226505084833, -0.01206069240246151, 0.028533741964330537, -0.3742160054327347, 0.04010582605734206, -0.16208351359328385, -0.26223567263587577, -0.04187041693454957, -0.5052764582453289, 0.1901266695684305, 0.2221896919252417, -0.014405695939311779, -0.2704732492361834], [-0.2572968031945426, -0.038504942636362526, -0.6596567681930466, 0.05864937436843547, 0.19631691332372364, -0.06974679363007433, -0.1175121138392202, 0.22196084635390845, 0.26786885882009565, 0.23820393594030906, 0.012960078343989446, -0.16263552504055945, -0.10826719409723815, 0.06827464459984098, 0.39038636756389977, -0.07252368040009852, -0.27973676197906494, -0.2225424552189315, -0.5623561753276937, 0.0467257965512371, -0.419478668610133, -0.3357187706124816, -0.5378030587735118, -0.30427789648215636, 0.18326120693644238, -0.3569053842033369, -0.47619232859712185], [0.03526761492939668, -0.11180634842441911, 0.12691723952292494, 0.1645548011969385, -0.05919293349404856, -0.41956940942695803, -0.1041512506897926, -0.2094985803674071, -0.504321462126817, -0.2634512031665886, 0.33769711186288753, -0.07666735396448222, -0.0215116831392324, 0.01955821713163603, 0.3407568529790239, 0.1683011550384024, 0.001567473919034194, 0.24207293596767426, 0.6210667290233807, 0.6577036842968778, 0.5189853469571871, -0.30197877925590055, 1.0211810450509413, -0.32623314636676765, -0.07126364687495244, -0.1884053439964593, 0.4427838808242407], [0.11034041149882169, -0.38841421757552, 0.07740191662606176, 0.13833885504883872, -0.09065973853794285, -0.3392550540518412, -0.20114367316410242, -0.21731232542178253, -0.09223034336994657, -0.09677672198135012, 0.22613501635334454, -0.25353988161104957, -0.47052723583813544, -0.19310388988190771, 0.4070466583524463, -0.11903129872520936, 0.695731099062524, 0.1853208249050551, -0.3145956781555779, -0.13029268785844056, 0.18899185106241875, -0.3188072584616791, 0.646278450448089, -0.26968631155737305, 0.21074158660206072, 0.3984211131780877, -0.02972058631841056], [-0.27694858227663155, -0.09086581025478892, 0.1059957195915407, 0.20581060394572584, -0.03508599953944605, -0.4352903037083782, -0.05082214138484976, -0.3257794011937707, -0.7367160517952276, -0.0725171249594047, -0.34209926887471737, 0.17859373908448437, 0.580983459756601, 0.5001101600449972, -0.07177861421704788, -0.02442538008323937, 0.25602313418032524, 0.3290859282314993, -0.05437020509383191, 0.16402665408782874, 0.852386494312894, -0.026478109028799726, -0.1320877660938778, 0.032636452613108116, 0.20541720250366932, -0.2763958003104399, -0.06760668050753019], [-0.31405822682287293, -0.06252385483189532, 0.5022062959824644, 0.2275934721680466, 0.0059183703427474945, -0.22079784595494212, -0.043830719250875914, 0.6375202452239659, 0.19867506864614268, 0.34738539814811825, -0.3505577332257356, -0.025440542352111867, 0.43589154823504195, -0.5093016741006079, 0.30568810204925734, -0.4817832323904646, -0.0158115032107253, -0.027765460606955672, 0.23504820530779236, -0.8835960963848423, -0.6129707426806218, -0.15726953257438944, 0.010041558079511405, -0.2431028358976282, 0.012565772051557211, -0.3247670908740334, -0.10921266859871281], [-0.23046055508362398, 0.06628400022486262, 0.15807939223417847, 0.38967825500781467, -0.1786544992755437, -0.08654641214949937, 0.012885182912917868, -0.07974555600163184, -0.013628732908256315, -0.42517119701652023, 0.09870808472424357, -0.24908359329329047, -0.26045194944948674, -0.4322799028932389, 0.3129857095155955, -0.039321510743662656, 0.3077317281894137, 0.07222214830475256, -0.4637121723436023, -0.2984647981913122, 0.2016532676570784, -0.20845312779412895, -0.29675406264710547, -0.0488208149747069, -0.050096199831483744, -0.27543183693795725, -0.08876549536473043], [-0.13022921059268652, -0.7049058945411535, 0.1354570230375054, -0.22082829529263998, 0.3550234434475694, -0.3130241685771527, -0.429912225427155, 0.33699840627370925, -0.41762925116720256, -0.1731447052740945, 0.15776417292405726, -0.08971830453697205, -0.450562400812027, 0.05117670871811408, -0.05288799752241425, 0.31995316339876506, 0.15483637506239226, 0.7995540336831265, -0.4479556176488592, -0.028063069805198255, -0.3164505448882368, 0.31377965179710104, 0.22367596630409228, 0.2052231024230395, -0.21968531693828858, -0.20310674726371833, -0.5524088962183398]], "b1": [-0.22242473552280764, -0.023641099226292327, 0.1687323878183066, -0.08717137980761515, 0.041408054334697984, 0.028509197619796887, 0.12835659786160686, 0.2809726234049682, 0.01115928407004558, -0.01674520313801813, -0.10969763884532037, 0.04494164778236674, -0.00297720712497417, 0.33811159103306787, -0.05151703407736435, -0.10352235483303512, 0.004994690152727058, 0.16220271868617728, -0.279865539624172, 0.03566593064883057, -0.05261417298300715, -0.03328143493699717, 0.005004360591999815, -0.14864820807881332, -0.03863281820069486, 0.14938038351989524, 0.42397089373784086, 0.24904498757575044, 0.5010305243299639, 0.35387995805814376, -0.015156309764364728, -0.06538315383793288], "W2": [0.3496106233394104, -0.11267478814367322, -0.24375207097611545, -0.10737688584247254, -0.2827333853165457, 0.4544368308489412, -0.3307823120260954, -0.6479777939012634, -0.11017974199206576, -0.09165063408245802, 0.10726785419560943, -0.3127579111143831, -0.007736005568780424, 1.1301690791646772, 0.18784575943991083, 0.15094175043346666, -0.06172011573408022, 0.5383677366344423, 0.3466737375508345, 0.1447552776457625, 0.2530397761987259, -0.18358595536721609, 0.22903180777257573, 0.13117855589015157, -0.13616148195036304, 0.396925751004906, -1.036948331554531, -0.511503289825735, -0.9809288473689839, 0.8108837734227479, -0.023890572046398974, 0.09741421651324884], "b2": -0.8531697307658097, "vocab": {"system": 0, "format": 1, "missing": 2, "incorrect": 3, "finding": 4, "problem": 5, "lang": 6, "everything": 7, "normal": 8, "sampleclass7": 9, "sampleclass9": 10, "sampleclass6": 11, "sampleclass3": 12, "sampleclass1": 13, "sampleclass8": 14, "sampleclass2": 15, "sampleclass0": 16, "sampleclass5": 17, "sampleclass4": 18, "verbose": 19, "detail": 20}, "idf": {"sampleclass2": 3.2774941710005194, "detail": 1.0971267107307228, "verbose": 1.527909626823177, "sampleclass0": 3.268683541318364, "sampleclass4": 3.0632395671035555, "sampleclass5": 3.2427080549151035, "sampleclass7": 3.4405337982450237, "sampleclass6": 3.3997118037247684, "sampleclass8": 3.295351788400526, "sampleclass9": 3.430171011209477, "sampleclass1": 3.3320531552509536, "sampleclass3": 3.341442895600793, "missing": 6.6185876285929695, "everything": 3.648173163023268, "normal": 3.648173163023268, "format": 6.90626970104475, "incorrect": 6.213122520484805, "lang": 5.80765741237664, "finding": 6.058971840657547, "problem": 5.925440448033024, "system": 7.311734809152915}, "threshold": 0.3, "hidden": 32}